<?xml version="1.0"?>
<opencv_storage>
<cascade>
  <stageType>BOOST</stageType>
  <featureType>HAAR</featureType>
  <height>24</height>
  <width>24</width>
  <stageParams>
    <boostType>GAB</boostType>
    <minHitRate>9.9500000476837158e-01</minHitRate>
    <maxFalseAlarm>5.0000000000000000e-01</maxFalseAlarm>
    <weightTrimRate>9.4999998807907104e-01</weightTrimRate>
    <maxDepth>1</maxDepth>
    <maxWeakCount>100</maxWeakCount></stageParams>
  <featureParams>
    <maxCatCount>0</maxCatCount>
    <featSize>1</featSize>
    <mode>BASIC</mode></featureParams>
  <stageNum>18</stageNum>
  <stages>
    <!-- stage 0 -->
    <_>
      <maxWeakCount>3</maxWeakCount>
      <stageThreshold>-7.3028767108917236e-01</stageThreshold>
      <weakClassifiers>
        <_>
          <internalNodes>
            0 -1 17 -9.5702871680259705e-02</internalNodes>
          <leafValues>
            1. -7.1428573131561279e-01</leafValues></_>
        <_>
          <internalNodes>
            0 -1 36 -6.4624384045600891e-02</internalNodes>
          <leafValues>
            9.4307404756546021e-01 -5.2822512388229370e-01</leafValues></_>
        <_>
          <internalNodes>
            0 -1 64 1.7322215717285872e-04</internalNodes>
          <leafValues>
            5.1222312450408936e-01 -8.1186145544052124e-01</leafValues></_></weakClassifiers></_>
    <!-- stage 1 -->
    <_>
      <maxWeakCount>4</maxWeakCount>
      <stageThreshold>-1.1841030120849609e+00</stageThreshold>
      <weakClassifiers>
        <_>
          <internalNodes>
            0 -1 35 -8.9776481036096811e-04</internalNodes>
          <leafValues>
            3.6363637447357178e-01 -8.2352942228317261e-01</leafValues></_>
        <_>
          <internalNodes>
            0 -1 25 3.0088569037616253e-03</internalNodes>
          <leafValues>
            -7.0889687538146973e-01 5.0933802127838135e-01</leafValues></_>
        <_>
          <internalNodes>
            0 -1 48 -1.7167753539979458e-03</internalNodes>
          <leafValues>
            8.9131444692611694e-01 -3.9420032501220703e-01</leafValues></_>
        <_>
          <internalNodes>
            0 -1 55 -1.6915367450565100e-03</internalNodes>
          <leafValues>
            7.7243757247924805e-01 -4.4464215636253357e-01</leafValues></_></weakClassifiers></_>
    <!-- stage 2 -->
    <_>
      <maxWeakCount>3</maxWeakCount>
      <stageThreshold>-8.0982714891433716e-01</stageThreshold>
      <weakClassifiers>
        <_>
          <internalNodes>
            0 -1 24 -1.3726769015192986e-02</internalNodes>
          <leafValues>
            8.9999997615814209e-01 -7.1249997615814209e-01</leafValues></_>
        <_>
          <internalNodes>
            0 -1 27 -2.2486508823931217e-03</internalNodes>
          <leafValues>
            6.1987930536270142e-01 -4.8942118883132935e-01</leafValues></_>
        <_>
          <internalNodes>
            0 -1 34 -4.2024892754852772e-03</internalNodes>
          <leafValues>
            4.4625359773635864e-01 -7.1720641851425171e-01</leafValues></_></weakClassifiers></_>
    <!-- stage 3 -->
    <_>
      <maxWeakCount>3</maxWeakCount>
      <stageThreshold>-8.7378042936325073e-01</stageThreshold>
      <weakClassifiers>
        <_>
          <internalNodes>
            0 -1 14 2.5014640763401985e-02</internalNodes>
          <leafValues>
            -7.0370370149612427e-01 1.</leafValues></_>
        <_>
          <internalNodes>
            0 -1 45 2.8175703846500255e-05</internalNodes>
          <leafValues>
            3.9323404431343079e-01 -8.0074208974838257e-01</leafValues></_>
        <_>
          <internalNodes>
            0 -1 54 -9.6096415072679520e-03</internalNodes>
          <leafValues>
            6.3066536188125610e-01 -5.1091980934143066e-01</leafValues></_></weakClassifiers></_>
    <!-- stage 4 -->
    <_>
      <maxWeakCount>3</maxWeakCount>
      <stageThreshold>-7.3482185602188110e-01</stageThreshold>
      <weakClassifiers>
        <_>
          <internalNodes>
            0 -1 30 8.6363554000854492e-03</internalNodes>
          <leafValues>
            -7.8947371244430542e-01 8.5714286565780640e-01</leafValues></_>
        <_>
          <internalNodes>
            0 -1 19 -2.3812083527445793e-03</internalNodes>
          <leafValues>
            7.3072737455368042e-01 -6.2545323371887207e-01</leafValues></_>
        <_>
          <internalNodes>
            0 -1 6 4.9419164657592773e-02</internalNodes>
          <leafValues>
            -4.8203179240226746e-01 6.8010503053665161e-01</leafValues></_></weakClassifiers></_>
    <!-- stage 5 -->
    <_>
      <maxWeakCount>4</maxWeakCount>
      <stageThreshold>-1.1995917558670044e+00</stageThreshold>
      <weakClassifiers>
        <_>
          <internalNodes>
            0 -1 12 9.8639056086540222e-02</internalNodes>
          <leafValues>
            -6.7272728681564331e-01 1.</leafValues></_>
        <_>
          <internalNodes>
            0 -1 43 1.2532096356153488e-02</internalNodes>
          <leafValues>
            -4.8537647724151611e-01 8.4025299549102783e-01</leafValues></_>
        <_>
          <internalNodes>
            0 -1 10 -1.1582981050014496e-01</internalNodes>
          <leafValues>
            -7.0660996437072754e-01 4.7565051913261414e-01</leafValues></_>
        <_>
          <internalNodes>
            0 -1 7 4.5552576193585992e-04</internalNodes>
          <leafValues>
            -5.1713848114013672e-01 6.7691367864608765e-01</leafValues></_></weakClassifiers></_>
    <!-- stage 6 -->
    <_>
      <maxWeakCount>5</maxWeakCount>
      <stageThreshold>-1.2924093008041382e+00</stageThreshold>
      <weakClassifiers>
        <_>
          <internalNodes>
            0 -1 16 -4.4266395270824432e-02</internalNodes>
          <leafValues>
            6.5217393636703491e-01 -7.0700639486312866e-01</leafValues></_>
        <_>
          <internalNodes>
            0 -1 0 -1.0321240127086639e-01</internalNodes>
          <leafValues>
            -9.6885830163955688e-01 1.5690658986568451e-01</leafValues></_>
        <_>
          <internalNodes>
            0 -1 42 1.4049126766622066e-03</internalNodes>
          <leafValues>
            -5.0303846597671509e-01 5.2339363098144531e-01</leafValues></_>
        <_>
          <internalNodes>
            0 -1 60 -3.6357152566779405e-05</internalNodes>
          <leafValues>
            4.7302070260047913e-01 -5.7191449403762817e-01</leafValues></_>
        <_>
          <internalNodes>
            0 -1 46 4.8207761719822884e-03</internalNodes>
          <leafValues>
            3.3264347910881042e-01 -8.9093422889709473e-01</leafValues></_></weakClassifiers></_>
    <!-- stage 7 -->
    <_>
      <maxWeakCount>4</maxWeakCount>
      <stageThreshold>-4.5676752924919128e-01</stageThreshold>
      <weakClassifiers>
        <_>
          <internalNodes>
            0 -1 29 1.2000477313995361e-01</internalNodes>
          <leafValues>
            -6.5269458293914795e-01 1.</leafValues></_>
        <_>
          <internalNodes>
            0 -1 21 -4.4124562293291092e-02</internalNodes>
          <leafValues>
            6.7256158590316772e-01 -5.0984078645706177e-01</leafValues></_>
        <_>
          <internalNodes>
            0 -1 32 -2.1526040509343147e-03</internalNodes>
          <leafValues>
            -7.4365055561065674e-01 3.9987903833389282e-01</leafValues></_>
        <_>
          <internalNodes>
            0 -1 66 -1.6635016072541475e-03</internalNodes>
          <leafValues>
            -8.3175092935562134e-01 3.0588883161544800e-01</leafValues></_></weakClassifiers></_>
    <!-- stage 8 -->
    <_>
      <maxWeakCount>5</maxWeakCount>
      <stageThreshold>-7.5761586427688599e-01</stageThreshold>
      <weakClassifiers>
        <_>
          <internalNodes>
            0 -1 22 2.3553686216473579e-02</internalNodes>
          <leafValues>
            -6.8098157644271851e-01 8.8235294818878174e-01</leafValues></_>
        <_>
          <internalNodes>
            0 -1 11 7.7218152582645416e-02</internalNodes>
          <leafValues>
            -5.5336904525756836e-01 8.2471925020217896e-01</leafValues></_>
        <_>
          <internalNodes>
            0 -1 28 3.4640054218471050e-03</internalNodes>
          <leafValues>
            4.3498870730400085e-01 -8.8452100753784180e-01</leafValues></_>
        <_>
          <internalNodes>
            0 -1 39 2.0081020891666412e-02</internalNodes>
          <leafValues>
            -3.9318600296974182e-01 8.6427062749862671e-01</leafValues></_>
        <_>
          <internalNodes>
            0 -1 2 -1.3793313410133123e-03</internalNodes>
          <leafValues>
            -8.7513911724090576e-01 4.3493208289146423e-01</leafValues></_></weakClassifiers></_>
    <!-- stage 9 -->
    <_>
      <maxWeakCount>3</maxWeakCount>
      <stageThreshold>-8.3604151010513306e-01</stageThreshold>
      <weakClassifiers>
        <_>
          <internalNodes>
            0 -1 38 -1.2387094087898731e-02</internalNodes>
          <leafValues>
            4.4827586412429810e-01 -7.2185432910919189e-01</leafValues></_>
        <_>
          <internalNodes>
            0 -1 65 -6.1056873528286815e-04</internalNodes>
          <leafValues>
            -7.4616086483001709e-01 4.1586947441101074e-01</leafValues></_>
        <_>
          <internalNodes>
            0 -1 33 -2.9556501656770706e-02</internalNodes>
          <leafValues>
            6.6996937990188599e-01 -5.3005665540695190e-01</leafValues></_></weakClassifiers></_>
    <!-- stage 10 -->
    <_>
      <maxWeakCount>5</maxWeakCount>
      <stageThreshold>-7.5576132535934448e-01</stageThreshold>
      <weakClassifiers>
        <_>
          <internalNodes>
            0 -1 13 -6.2318004667758942e-02</internalNodes>
          <leafValues>
            8.3333331346511841e-01 -6.3095235824584961e-01</leafValues></_>
        <_>
          <internalNodes>
            0 -1 9 -1.1155667743878439e-04</internalNodes>
          <leafValues>
            -8.2783532142639160e-01 2.1396315097808838e-01</leafValues></_>
        <_>
          <internalNodes>
            0 -1 62 1.1433053296059370e-03</internalNodes>
          <leafValues>
            3.2616886496543884e-01 -8.9104604721069336e-01</leafValues></_>
        <_>
          <internalNodes>
            0 -1 52 3.5502831451594830e-04</internalNodes>
          <leafValues>
            2.7929645776748657e-01 -9.2062574625015259e-01</leafValues></_>
        <_>
          <internalNodes>
            0 -1 4 1.7808956326916814e-03</internalNodes>
          <leafValues>
            2.7297750115394592e-01 -9.2837232351303101e-01</leafValues></_></weakClassifiers></_>
    <!-- stage 11 -->
    <_>
      <maxWeakCount>4</maxWeakCount>
      <stageThreshold>-9.2592644691467285e-01</stageThreshold>
      <weakClassifiers>
        <_>
          <internalNodes>
            0 -1 47 1.8085211515426636e-02</internalNodes>
          <leafValues>
            -6.9620251655578613e-01 6.3636362552642822e-01</leafValues></_>
        <_>
          <internalNodes>
            0 -1 63 -1.8505481421016157e-04</internalNodes>
          <leafValues>
            -9.1308301687240601e-01 2.9660820960998535e-01</leafValues></_>
        <_>
          <internalNodes>
            0 -1 8 -5.9181323740631342e-04</internalNodes>
          <leafValues>
            -1. 2.8645142912864685e-01</leafValues></_>
        <_>
          <internalNodes>
            0 -1 51 -2.6222685119137168e-04</internalNodes>
          <leafValues>
            -8.1278353929519653e-01 4.1685441136360168e-01</leafValues></_></weakClassifiers></_>
    <!-- stage 12 -->
    <_>
      <maxWeakCount>3</maxWeakCount>
      <stageThreshold>-1.2381012439727783e+00</stageThreshold>
      <weakClassifiers>
        <_>
          <internalNodes>
            0 -1 23 -4.5794129371643066e-02</internalNodes>
          <leafValues>
            7.5000000000000000e-01 -6.5853661298751831e-01</leafValues></_>
        <_>
          <internalNodes>
            0 -1 58 -5.6428811512887478e-04</internalNodes>
          <leafValues>
            -9.1697520017623901e-01 2.6941552758216858e-01</leafValues></_>
        <_>
          <internalNodes>
            0 -1 57 5.5668363347649574e-04</internalNodes>
          <leafValues>
            3.3741047978401184e-01 -1.</leafValues></_></weakClassifiers></_>
    <!-- stage 13 -->
    <_>
      <maxWeakCount>3</maxWeakCount>
      <stageThreshold>-6.2496072053909302e-01</stageThreshold>
      <weakClassifiers>
        <_>
          <internalNodes>
            0 -1 37 2.1205699071288109e-02</internalNodes>
          <leafValues>
            -6.3313609361648560e-01 1.</leafValues></_>
        <_>
          <internalNodes>
            0 -1 61 -7.8005097748246044e-05</internalNodes>
          <leafValues>
            4.6617290377616882e-01 -6.2326306104660034e-01</leafValues></_>
        <_>
          <internalNodes>
            0 -1 49 -6.4334180206060410e-03</internalNodes>
          <leafValues>
            6.3143843412399292e-01 -4.5130318403244019e-01</leafValues></_></weakClassifiers></_>
    <!-- stage 14 -->
    <_>
      <maxWeakCount>3</maxWeakCount>
      <stageThreshold>-6.8469393253326416e-01</stageThreshold>
      <weakClassifiers>
        <_>
          <internalNodes>
            0 -1 59 -1.8533450202085078e-05</internalNodes>
          <leafValues>
            6.5714287757873535e-01 -8.2068967819213867e-01</leafValues></_>
        <_>
          <internalNodes>
            0 -1 31 2.0990284610888921e-05</internalNodes>
          <leafValues>
            -6.8710237741470337e-01 8.1691563129425049e-01</leafValues></_>
        <_>
          <internalNodes>
            0 -1 50 5.9129371948074549e-05</internalNodes>
          <leafValues>
            -6.5473437309265137e-01 8.9057123661041260e-01</leafValues></_></weakClassifiers></_>
    <!-- stage 15 -->
    <_>
      <maxWeakCount>3</maxWeakCount>
      <stageThreshold>-7.9290068149566650e-01</stageThreshold>
      <weakClassifiers>
        <_>
          <internalNodes>
            0 -1 41 -5.2999873878434300e-04</internalNodes>
          <leafValues>
            3.5483869910240173e-01 -7.1812081336975098e-01</leafValues></_>
        <_>
          <internalNodes>
            0 -1 40 -9.9411443807184696e-04</internalNodes>
          <leafValues>
            4.4368129968643188e-01 -6.8277841806411743e-01</leafValues></_>
        <_>
          <internalNodes>
            0 -1 53 2.0148258656263351e-02</internalNodes>
          <leafValues>
            -4.6496096253395081e-01 6.9239854812622070e-01</leafValues></_></weakClassifiers></_>
    <!-- stage 16 -->
    <_>
      <maxWeakCount>5</maxWeakCount>
      <stageThreshold>-1.0395480394363403e+00</stageThreshold>
      <weakClassifiers>
        <_>
          <internalNodes>
            0 -1 5 1.1143068224191666e-01</internalNodes>
          <leafValues>
            -7.0469796657562256e-01 2.9032257199287415e-01</leafValues></_>
        <_>
          <internalNodes>
            0 -1 26 6.4522279426455498e-03</internalNodes>
          <leafValues>
            1.5372915565967560e-01 -8.4671682119369507e-01</leafValues></_>
        <_>
          <internalNodes>
            0 -1 44 1.7922795450431295e-05</internalNodes>
          <leafValues>
            -4.9658268690109253e-01 4.6061909198760986e-01</leafValues></_>
        <_>
          <internalNodes>
            0 -1 20 1.1911067413166165e-03</internalNodes>
          <leafValues>
            3.3177086710929871e-01 -7.9918789863586426e-01</leafValues></_>
        <_>
          <internalNodes>
            0 -1 3 3.9372360333800316e-03</internalNodes>
          <leafValues>
            -3.2376733422279358e-01 8.8160145282745361e-01</leafValues></_></weakClassifiers></_>
    <!-- stage 17 -->
    <_>
      <maxWeakCount>4</maxWeakCount>
      <stageThreshold>-5.1848638057708740e-01</stageThreshold>
      <weakClassifiers>
        <_>
          <internalNodes>
            0 -1 1 1.9731310009956360e-01</internalNodes>
          <leafValues>
            -7.3611110448837280e-01 2.7777779102325439e-01</leafValues></_>
        <_>
          <internalNodes>
            0 -1 18 4.0933620184659958e-03</internalNodes>
          <leafValues>
            -4.4781818985939026e-01 5.2022624015808105e-01</leafValues></_>
        <_>
          <internalNodes>
            0 -1 15 1.8738219514489174e-03</internalNodes>
          <leafValues>
            2.5704154372215271e-01 -9.3152070045471191e-01</leafValues></_>
        <_>
          <internalNodes>
            0 -1 56 -1.1997412366326898e-04</internalNodes>
          <leafValues>
            4.7208687663078308e-01 -5.5964308977127075e-01</leafValues></_></weakClassifiers></_></stages>
  <features>
    <_>
      <rects>
        <_>
          0 0 14 19 -1.</_>
        <_>
          7 0 7 19 2.</_></rects>
      <tilted>0</tilted></_>
    <_>
      <rects>
        <_>
          0 0 24 15 -1.</_>
        <_>
          8 0 8 15 3.</_></rects>
      <tilted>0</tilted></_>
    <_>
      <rects>
        <_>
          0 19 13 3 -1.</_>
        <_>
          0 20 13 1 3.</_></rects>
      <tilted>0</tilted></_>
    <_>
      <rects>
        <_>
          1 21 3 2 -1.</_>
        <_>
          2 21 1 2 3.</_></rects>
      <tilted>0</tilted></_>
    <_>
      <rects>
        <_>
          1 22 6 2 -1.</_>
        <_>
          3 22 2 2 3.</_></rects>
      <tilted>0</tilted></_>
    <_>
      <rects>
        <_>
          2 4 18 8 -1.</_>
        <_>
          8 4 6 8 3.</_></rects>
      <tilted>0</tilted></_>
    <_>
      <rects>
        <_>
          3 3 8 21 -1.</_>
        <_>
          3 10 8 7 3.</_></rects>
      <tilted>0</tilted></_>
    <_>
      <rects>
        <_>
          3 16 2 4 -1.</_>
        <_>
          3 16 1 2 2.</_>
        <_>
          4 18 1 2 2.</_></rects>
      <tilted>0</tilted></_>
    <_>
      <rects>
        <_>
          3 23 3 1 -1.</_>
        <_>
          4 23 1 1 3.</_></rects>
      <tilted>0</tilted></_>
    <_>
      <rects>
        <_>
          4 0 3 3 -1.</_>
        <_>
          5 0 1 3 3.</_></rects>
      <tilted>0</tilted></_>
    <_>
      <rects>
        <_>
          4 1 13 22 -1.</_>
        <_>
          4 12 13 11 2.</_></rects>
      <tilted>0</tilted></_>
    <_>
      <rects>
        <_>
          4 7 16 10 -1.</_>
        <_>
          4 7 8 5 2.</_>
        <_>
          12 12 8 5 2.</_></rects>
      <tilted>0</tilted></_>
    <_>
      <rects>
        <_>
          4 10 18 4 -1.</_>
        <_>
          10 10 6 4 3.</_></rects>
      <tilted>0</tilted></_>
    <_>
      <rects>
        <_>
          4 11 10 6 -1.</_>
        <_>
          4 11 5 3 2.</_>
        <_>
          9 14 5 3 2.</_></rects>
      <tilted>0</tilted></_>
    <_>
      <rects>
        <_>
          4 11 18 1 -1.</_>
        <_>
          10 11 6 1 3.</_></rects>
      <tilted>0</tilted></_>
    <_>
      <rects>
        <_>
          5 2 2 6 -1.</_>
        <_>
          5 4 2 2 3.</_></rects>
      <tilted>0</tilted></_>
    <_>
      <rects>
        <_>
          5 8 8 10 -1.</_>
        <_>
          5 8 4 5 2.</_>
        <_>
          9 13 4 5 2.</_></rects>
      <tilted>0</tilted></_>
    <_>
      <rects>
        <_>
          5 12 11 12 -1.</_>
        <_>
          5 18 11 6 2.</_></rects>
      <tilted>0</tilted></_>
    <_>
      <rects>
        <_>
          5 14 4 4 -1.</_>
        <_>
          5 14 2 2 2.</_>
        <_>
          7 16 2 2 2.</_></rects>
      <tilted>0</tilted></_>
    <_>
      <rects>
        <_>
          6 9 8 2 -1.</_>
        <_>
          6 10 8 1 2.</_></rects>
      <tilted>0</tilted></_>
    <_>
      <rects>
        <_>
          7 4 7 2 -1.</_>
        <_>
          7 5 7 1 2.</_></rects>
      <tilted>0</tilted></_>
    <_>
      <rects>
        <_>
          7 7 15 9 -1.</_>
        <_>
          12 7 5 9 3.</_></rects>
      <tilted>0</tilted></_>
    <_>
      <rects>
        <_>
          7 9 4 6 -1.</_>
        <_>
          7 12 4 3 2.</_></rects>
      <tilted>0</tilted></_>
    <_>
      <rects>
        <_>
          7 9 12 6 -1.</_>
        <_>
          7 9 6 3 2.</_>
        <_>
          13 12 6 3 2.</_></rects>
      <tilted>0</tilted></_>
    <_>
      <rects>
        <_>
          7 11 6 4 -1.</_>
        <_>
          7 11 3 2 2.</_>
        <_>
          10 13 3 2 2.</_></rects>
      <tilted>0</tilted></_>
    <_>
      <rects>
        <_>
          7 13 12 2 -1.</_>
        <_>
          7 13 6 1 2.</_>
        <_>
          13 14 6 1 2.</_></rects>
      <tilted>0</tilted></_>
    <_>
      <rects>
        <_>
          7 20 16 4 -1.</_>
        <_>
          7 20 8 2 2.</_>
        <_>
          15 22 8 2 2.</_></rects>
      <tilted>0</tilted></_>
    <_>
      <rects>
        <_>
          8 11 1 6 -1.</_>
        <_>
          8 13 1 2 3.</_></rects>
      <tilted>0</tilted></_>
    <_>
      <rects>
        <_>
          9 0 12 1 -1.</_>
        <_>
          13 0 4 1 3.</_></rects>
      <tilted>0</tilted></_>
    <_>
      <rects>
        <_>
          9 2 3 21 -1.</_>
        <_>
          9 9 3 7 3.</_></rects>
      <tilted>0</tilted></_>
    <_>
      <rects>
        <_>
          9 5 2 8 -1.</_>
        <_>
          9 9 2 4 2.</_></rects>
      <tilted>0</tilted></_>
    <_>
      <rects>
        <_>
          9 15 2 2 -1.</_>
        <_>
          9 15 1 1 2.</_>
        <_>
          10 16 1 1 2.</_></rects>
      <tilted>0</tilted></_>
    <_>
      <rects>
        <_>
          10 0 12 4 -1.</_>
        <_>
          14 0 4 4 3.</_></rects>
      <tilted>0</tilted></_>
    <_>
      <rects>
        <_>
          11 5 8 8 -1.</_>
        <_>
          11 5 4 4 2.</_>
        <_>
          15 9 4 4 2.</_></rects>
      <tilted>0</tilted></_>
    <_>
      <rects>
        <_>
          11 6 8 11 -1.</_>
        <_>
          15 6 4 11 2.</_></rects>
      <tilted>0</tilted></_>
    <_>
      <rects>
        <_>
          11 13 3 2 -1.</_>
        <_>
          11 14 3 1 2.</_></rects>
      <tilted>0</tilted></_>
    <_>
      <rects>
        <_>
          12 2 5 15 -1.</_>
        <_>
          12 7 5 5 3.</_></rects>
      <tilted>0</tilted></_>
    <_>
      <rects>
        <_>
          12 5 8 4 -1.</_>
        <_>
          12 5 4 2 2.</_>
        <_>
          16 7 4 2 2.</_></rects>
      <tilted>0</tilted></_>
    <_>
      <rects>
        <_>
          12 5 7 6 -1.</_>
        <_>
          12 7 7 2 3.</_></rects>
      <tilted>0</tilted></_>
    <_>
      <rects>
        <_>
          12 8 11 6 -1.</_>
        <_>
          12 10 11 2 3.</_></rects>
      <tilted>0</tilted></_>
    <_>
      <rects>
        <_>
          12 11 2 9 -1.</_>
        <_>
          12 14 2 3 3.</_></rects>
      <tilted>0</tilted></_>
    <_>
      <rects>
        <_>
          12 14 2 2 -1.</_>
        <_>
          12 14 1 1 2.</_>
        <_>
          13 15 1 1 2.</_></rects>
      <tilted>0</tilted></_>
    <_>
      <rects>
        <_>
          12 14 4 2 -1.</_>
        <_>
          14 14 2 2 2.</_></rects>
      <tilted>0</tilted></_>
    <_>
      <rects>
        <_>
          13 5 8 4 -1.</_>
        <_>
          13 5 4 2 2.</_>
        <_>
          17 7 4 2 2.</_></rects>
      <tilted>0</tilted></_>
    <_>
      <rects>
        <_>
          13 14 1 2 -1.</_>
        <_>
          13 15 1 1 2.</_></rects>
      <tilted>0</tilted></_>
    <_>
      <rects>
        <_>
          13 17 8 4 -1.</_>
        <_>
          13 19 8 2 2.</_></rects>
      <tilted>0</tilted></_>
    <_>
      <rects>
        <_>
          13 18 9 4 -1.</_>
        <_>
          16 18 3 4 3.</_></rects>
      <tilted>0</tilted></_>
    <_>
      <rects>
        <_>
          14 3 3 9 -1.</_>
        <_>
          14 6 3 3 3.</_></rects>
      <tilted>0</tilted></_>
    <_>
      <rects>
        <_>
          14 9 4 2 -1.</_>
        <_>
          14 10 4 1 2.</_></rects>
      <tilted>0</tilted></_>
    <_>
      <rects>
        <_>
          14 11 6 4 -1.</_>
        <_>
          16 11 2 4 3.</_></rects>
      <tilted>0</tilted></_>
    <_>
      <rects>
        <_>
          14 13 1 2 -1.</_>
        <_>
          14 14 1 1 2.</_></rects>
      <tilted>0</tilted></_>
    <_>
      <rects>
        <_>
          14 20 2 4 -1.</_>
        <_>
          14 20 1 2 2.</_>
        <_>
          15 22 1 2 2.</_></rects>
      <tilted>0</tilted></_>
    <_>
      <rects>
        <_>
          14 22 3 2 -1.</_>
        <_>
          15 22 1 2 3.</_></rects>
      <tilted>0</tilted></_>
    <_>
      <rects>
        <_>
          15 0 3 15 -1.</_>
        <_>
          15 5 3 5 3.</_></rects>
      <tilted>0</tilted></_>
    <_>
      <rects>
        <_>
          15 4 1 12 -1.</_>
        <_>
          15 8 1 4 3.</_></rects>
      <tilted>0</tilted></_>
    <_>
      <rects>
        <_>
          16 7 3 2 -1.</_>
        <_>
          17 7 1 2 3.</_></rects>
      <tilted>0</tilted></_>
    <_>
      <rects>
        <_>
          16 16 6 1 -1.</_>
        <_>
          19 16 3 1 2.</_></rects>
      <tilted>0</tilted></_>
    <_>
      <rects>
        <_>
          18 16 2 2 -1.</_>
        <_>
          19 16 1 2 2.</_></rects>
      <tilted>0</tilted></_>
    <_>
      <rects>
        <_>
          18 17 6 6 -1.</_>
        <_>
          18 17 3 3 2.</_>
        <_>
          21 20 3 3 2.</_></rects>
      <tilted>0</tilted></_>
    <_>
      <rects>
        <_>
          18 19 1 2 -1.</_>
        <_>
          18 20 1 1 2.</_></rects>
      <tilted>0</tilted></_>
    <_>
      <rects>
        <_>
          19 5 1 3 -1.</_>
        <_>
          19 6 1 1 3.</_></rects>
      <tilted>0</tilted></_>
    <_>
      <rects>
        <_>
          19 8 2 4 -1.</_>
        <_>
          19 8 1 2 2.</_>
        <_>
          20 10 1 2 2.</_></rects>
      <tilted>0</tilted></_>
    <_>
      <rects>
        <_>
          19 20 4 3 -1.</_>
        <_>
          21 20 2 3 2.</_></rects>
      <tilted>0</tilted></_>
    <_>
      <rects>
        <_>
          20 6 3 1 -1.</_>
        <_>
          21 6 1 1 3.</_></rects>
      <tilted>0</tilted></_>
    <_>
      <rects>
        <_>
          20 16 3 5 -1.</_>
        <_>
          21 16 1 5 3.</_></rects>
      <tilted>0</tilted></_>
    <_>
      <rects>
        <_>
          20 17 3 4 -1.</_>
        <_>
          21 17 1 4 3.</_></rects>
      <tilted>0</tilted></_>
    <_>
      <rects>
        <_>
          23 2 1 10 -1.</_>
        <_>
          23 7 1 5 2.</_></rects>
      <tilted>0</tilted></_></features></cascade>
</opencv_storage>
